digraph Tree {
node [shape=box] ;
0 [label="X[17] <= 0.5\ngini = 0.22\nsamples = 22880\nvalue = [20001, 2879]"] ;
1 [label="X[6] <= -35.45\ngini = 0.2104\nsamples = 22401\nvalue = [19725, 2676]"] ;
0 -> 1 [labeldistance=2.5, labelangle=45, headlabel="True"] ;
2 [label="X[14] <= 0.5\ngini = 0.178\nsamples = 20976\nvalue = [18905, 2071]"] ;
1 -> 2 ;
3 [label="X[7] <= 1.1525\ngini = 0.1721\nsamples = 20780\nvalue = [18804, 1976]"] ;
2 -> 3 ;
4 [label="X[29] <= 0.5\ngini = 0.4997\nsamples = 936\nvalue = [456, 480]"] ;
3 -> 4 ;
5 [label="gini = 0.5\nsamples = 826\nvalue = [411, 415]"] ;
4 -> 5 ;
6 [label="gini = 0.4835\nsamples = 110\nvalue = [45, 65]"] ;
4 -> 6 ;
7 [label="X[16] <= 0.5\ngini = 0.1394\nsamples = 19844\nvalue = [18348, 1496]"] ;
3 -> 7 ;
8 [label="gini = 0.1444\nsamples = 17544\nvalue = [16170, 1374]"] ;
7 -> 8 ;
9 [label="gini = 0.1005\nsamples = 2300\nvalue = [2178, 122]"] ;
7 -> 9 ;
10 [label="X[33] <= 0.5\ngini = 0.4995\nsamples = 196\nvalue = [101, 95]"] ;
2 -> 10 ;
11 [label="X[21] <= 0.5\ngini = 0.4982\nsamples = 151\nvalue = [80, 71]"] ;
10 -> 11 ;
12 [label="gini = 0.5\nsamples = 127\nvalue = [64, 63]"] ;
11 -> 12 ;
13 [label="gini = 0.4444\nsamples = 24\nvalue = [16, 8]"] ;
11 -> 13 ;
14 [label="X[7] <= 1.6395\ngini = 0.4978\nsamples = 45\nvalue = [21, 24]"] ;
10 -> 14 ;
15 [label="gini = 0.4082\nsamples = 14\nvalue = [10, 4]"] ;
14 -> 15 ;
16 [label="gini = 0.4579\nsamples = 31\nvalue = [11, 20]"] ;
14 -> 16 ;
17 [label="X[12] <= 0.5\ngini = 0.4886\nsamples = 1425\nvalue = [820, 605]"] ;
1 -> 17 ;
18 [label="X[35] <= 0.5\ngini = 0.4904\nsamples = 1312\nvalue = [747, 565]"] ;
17 -> 18 ;
19 [label="X[44] <= 0.5\ngini = 0.4895\nsamples = 1167\nvalue = [668, 499]"] ;
18 -> 19 ;
20 [label="gini = 0.4945\nsamples = 628\nvalue = [347, 281]"] ;
19 -> 20 ;
21 [label="gini = 0.4817\nsamples = 539\nvalue = [321, 218]"] ;
19 -> 21 ;
22 [label="X[27] <= 0.5\ngini = 0.496\nsamples = 145\nvalue = [79, 66]"] ;
18 -> 22 ;
23 [label="gini = 0.4987\nsamples = 135\nvalue = [71, 64]"] ;
22 -> 23 ;
24 [label="gini = 0.32\nsamples = 10\nvalue = [8, 2]"] ;
22 -> 24 ;
25 [label="X[38] <= 0.5\ngini = 0.4574\nsamples = 113\nvalue = [73, 40]"] ;
17 -> 25 ;
26 [label="X[19] <= 0.5\ngini = 0.4524\nsamples = 107\nvalue = [70, 37]"] ;
25 -> 26 ;
27 [label="gini = 0.4346\nsamples = 94\nvalue = [64, 30]"] ;
26 -> 27 ;
28 [label="gini = 0.497\nsamples = 13\nvalue = [6, 7]"] ;
26 -> 28 ;
29 [label="X[35] <= 0.5\ngini = 0.5\nsamples = 6\nvalue = [3, 3]"] ;
25 -> 29 ;
30 [label="gini = 0.375\nsamples = 4\nvalue = [3, 1]"] ;
29 -> 30 ;
31 [label="gini = 0.0\nsamples = 2\nvalue = [0, 2]"] ;
29 -> 31 ;
32 [label="X[7] <= 1.0205\ngini = 0.4884\nsamples = 479\nvalue = [276, 203]"] ;
0 -> 32 [labeldistance=2.5, labelangle=-45, headlabel="False"] ;
33 [label="X[25] <= 0.5\ngini = 0.4718\nsamples = 404\nvalue = [250, 154]"] ;
32 -> 33 ;
34 [label="X[35] <= 0.5\ngini = 0.475\nsamples = 376\nvalue = [230, 146]"] ;
33 -> 34 ;
35 [label="X[40] <= 0.5\ngini = 0.4795\nsamples = 341\nvalue = [205, 136]"] ;
34 -> 35 ;
36 [label="gini = 0.4761\nsamples = 320\nvalue = [195, 125]"] ;
35 -> 36 ;
37 [label="gini = 0.4989\nsamples = 21\nvalue = [10, 11]"] ;
35 -> 37 ;
38 [label="X[46] <= 0.5\ngini = 0.4082\nsamples = 35\nvalue = [25, 10]"] ;
34 -> 38 ;
39 [label="gini = 0.3911\nsamples = 30\nvalue = [22, 8]"] ;
38 -> 39 ;
40 [label="gini = 0.48\nsamples = 5\nvalue = [3, 2]"] ;
38 -> 40 ;
41 [label="X[36] <= 0.5\ngini = 0.4082\nsamples = 28\nvalue = [20, 8]"] ;
33 -> 41 ;
42 [label="X[46] <= 0.5\ngini = 0.48\nsamples = 10\nvalue = [6, 4]"] ;
41 -> 42 ;
43 [label="gini = 0.4938\nsamples = 9\nvalue = [5, 4]"] ;
42 -> 43 ;
44 [label="gini = 0.0\nsamples = 1\nvalue = [1, 0]"] ;
42 -> 44 ;
45 [label="X[43] <= 0.5\ngini = 0.3457\nsamples = 18\nvalue = [14, 4]"] ;
41 -> 45 ;
46 [label="gini = 0.2449\nsamples = 14\nvalue = [12, 2]"] ;
45 -> 46 ;
47 [label="gini = 0.5\nsamples = 4\nvalue = [2, 2]"] ;
45 -> 47 ;
48 [label="X[7] <= 1.0305\ngini = 0.453\nsamples = 75\nvalue = [26, 49]"] ;
32 -> 48 ;
49 [label="X[46] <= 0.5\ngini = 0.3911\nsamples = 15\nvalue = [4, 11]"] ;
48 -> 49 ;
50 [label="X[32] <= 0.5\ngini = 0.3367\nsamples = 14\nvalue = [3, 11]"] ;
49 -> 50 ;
51 [label="gini = 0.32\nsamples = 10\nvalue = [2, 8]"] ;
50 -> 51 ;
52 [label="gini = 0.375\nsamples = 4\nvalue = [1, 3]"] ;
50 -> 52 ;
53 [label="gini = 0.0\nsamples = 1\nvalue = [1, 0]"] ;
49 -> 53 ;
54 [label="X[41] <= 0.5\ngini = 0.4644\nsamples = 60\nvalue = [22, 38]"] ;
48 -> 54 ;
55 [label="X[19] <= 0.5\ngini = 0.4888\nsamples = 40\nvalue = [17, 23]"] ;
54 -> 55 ;
56 [label="gini = 0.4963\nsamples = 35\nvalue = [16, 19]"] ;
55 -> 56 ;
57 [label="gini = 0.32\nsamples = 5\nvalue = [1, 4]"] ;
55 -> 57 ;
58 [label="X[25] <= 0.5\ngini = 0.375\nsamples = 20\nvalue = [5, 15]"] ;
54 -> 58 ;
59 [label="gini = 0.3878\nsamples = 19\nvalue = [5, 14]"] ;
58 -> 59 ;
60 [label="gini = 0.0\nsamples = 1\nvalue = [0, 1]"] ;
58 -> 60 ;
}